<?xml version="1.0"?>
<opencv_storage>
<stage2>
  <maxWeakCount>5</maxWeakCount>
  <stageThreshold>-2.4917676448822021e+00</stageThreshold>
  <weakClassifiers>
    <_>
      <internalNodes>
        0 -1 3580 8.8150537014007568e-01</internalNodes>
      <leafValues>
        -9.8216056823730469e-01 1.</leafValues></_>
    <_>
      <internalNodes>
        0 -1 57619 -1.1398446986277122e-05</internalNodes>
      <leafValues>
        -9.7516214847564697e-01 -4.7308397293090820e-01</leafValues></_>
    <_>
      <internalNodes>
        0 -1 31255 -2.2409283246815903e-06</internalNodes>
      <leafValues>
        -9.3437743186950684e-01 -1.1981613188982010e-01</leafValues></_>
    <_>
      <internalNodes>
        0 -1 931364 -3.2973975976346992e-06</internalNodes>
      <leafValues>
        -1. 1.7694592475891113e-01</leafValues></_>
    <_>
      <internalNodes>
        0 -1 2881290 1.0827873666130472e-05</internalNodes>
      <leafValues>
        2.2298653423786163e-01 -1.</leafValues></_></weakClassifiers></stage2>
</opencv_storage>
